digraph Tree {
node [shape=box, style="filled, rounded", color="black", fontname=helvetica] ;
edge [fontname=helvetica] ;
0 [label="type_0_packet_per_IPPair <= 0.542\nentropy = 0.998\nsamples = 17\nvalue = [9, 8]\nclass = NoICMPTunnel", fillcolor="#fcf1e9"] ;
1 [label="type_8_payload_len_percentile_25 <= 2.5\nentropy = 0.544\nsamples = 8\nvalue = [1, 7]\nclass = hasICMPTunnel", fillcolor="#55abe9"] ;
0 -> 1 [labeldistance=2.5, labelangle=45, headlabel="True"] ;
2 [label="entropy = 0.0\nsamples = 1\nvalue = [1, 0]\nclass = NoICMPTunnel", fillcolor="#e58139"] ;
1 -> 2 ;
3 [label="entropy = 0.0\nsamples = 7\nvalue = [0, 7]\nclass = hasICMPTunnel", fillcolor="#399de5"] ;
1 -> 3 ;
4 [label="type_0_payload_len_mean <= 107.003\nentropy = 0.503\nsamples = 9\nvalue = [8, 1]\nclass = NoICMPTunnel", fillcolor="#e89152"] ;
0 -> 4 [labeldistance=2.5, labelangle=-45, headlabel="False"] ;
5 [label="entropy = 0.0\nsamples = 8\nvalue = [8, 0]\nclass = NoICMPTunnel", fillcolor="#e58139"] ;
4 -> 5 ;
6 [label="entropy = 0.0\nsamples = 1\nvalue = [0, 1]\nclass = hasICMPTunnel", fillcolor="#399de5"] ;
4 -> 6 ;
}