digraph Tree {
node [shape=box, style="filled, rounded", color="black", fontname=helvetica] ;
edge [fontname=helvetica] ;
0 [label="distance_in_ICMP_pair_mean <= 1.0\nentropy = 1.0\nsamples = 24\nvalue = [12, 12]\nclass = NoICMPTunnel", fillcolor="#ffffff"] ;
1 [label="type_8_payload_len_mean <= 35.0\nentropy = 0.592\nsamples = 14\nvalue = [12, 2]\nclass = NoICMPTunnel", fillcolor="#e9965a"] ;
0 -> 1 [labeldistance=2.5, labelangle=45, headlabel="True"] ;
2 [label="entropy = 0.0\nsamples = 8\nvalue = [8, 0]\nclass = NoICMPTunnel", fillcolor="#e58139"] ;
1 -> 2 ;
3 [label="distance_between_type_0_percentile_25 <= 1.5\nentropy = 0.918\nsamples = 6\nvalue = [4, 2]\nclass = NoICMPTunnel", fillcolor="#f2c09c"] ;
1 -> 3 ;
4 [label="entropy = 0.0\nsamples = 2\nvalue = [0, 2]\nclass = hasICMPTunnel", fillcolor="#399de5"] ;
3 -> 4 ;
5 [label="entropy = 0.0\nsamples = 4\nvalue = [4, 0]\nclass = NoICMPTunnel", fillcolor="#e58139"] ;
3 -> 5 ;
6 [label="entropy = 0.0\nsamples = 10\nvalue = [0, 10]\nclass = hasICMPTunnel", fillcolor="#399de5"] ;
0 -> 6 [labeldistance=2.5, labelangle=-45, headlabel="False"] ;
}